solver_type L2R_L2LOSS_SVC
nr_class 2
label 1 -1
nr_feature 116
bias -1.000000000000000
w
0.0001721384707013394 
0.0007216572917749781 
0.008948516298539017 
-0.05651464018513681 
0.05887938444109477 
-0.1043813462167193 
0.01647502662964060 
0.09921616815797651 
0.06972073961438140 
0.01012307053925712 
0.01399247055614467 
0.08849727794073725 
-0.003496196692539235 
-0.08206703636779883 
-0.08310829684557165 
-0.1206425026379397 
0.03099326229992963 
-0.07169501981556206 
0.0007553910103266590 
-0.05493993887124698 
0.08772199190449761 
-0.09997310445314789 
0.04690482660632821 
-0.1322201735697981 
0.08502736544993164 
-0.01470532548845719 
0 
-0.1270057024290109 
-0.03110628168829760 
0.06767897628320804 
0.03270534614973825 
0.05249518286825129 
0.01056833423212576 
0.07209578672893217 
0.09436660120389698 
0.04722800726519903 
-0.08785962312658258 
0.004927639276244325 
0.1241919039609882 
0.08846494787700264 
-0.03175063666068060 
-0.1742795855307788 
0.04597649228806038 
0.01199716253492176 
0.1103382954032633 
-0.07554949372664954 
0.02794753178794816 
-0.05309615461969826 
-0.1262679756928962 
-0.02812111284175729 
0.08731735094284493 
-0.01001136260499165 
0.02714434553602189 
-0.002456345558801112 
-0.1267057579869996 
-0.1681622518983421 
-0.003177923068100584 
-0.009511076586275640 
-0.08340215142253626 
0.2185749167318751 
-0.2096283607077189 
-0.07042310282551024 
0.01497139386380896 
-0.2463569391818157 
-0.02553818927685017 
-0.01411382774419591 
0.03730061100958816 
-0.09708450923127428 
-0.1595736776194003 
0.1102170298448195 
0.02189609691603844 
-0.09861818965134041 
0.07622343013828396 
0.04446350536501800 
-0.1110388611732915 
-0.02058059858722463 
-0.09948422941940119 
0.09728866173706886 
-0.03455816462011126 
-0.08938445318105237 
-0.03365432198089879 
-0.04954685267190519 
-0.2257537791010661 
-0.004689155466266575 
-0.07334713704636470 
0.05535038828809630 
0.06434316851667891 
0.01562976395521604 
-0.07594427376186046 
0.03589662076338736 
0.01787379464583190 
-0.09477606531153386 
0.02398196038070974 
-0.2740348025678495 
-0.1050395197343958 
-0.003922523649694682 
0.04161871839275295 
0.006427771257569487 
0.1021877024406601 
-0.08785193958308901 
-0.01788839046526306 
-0.02562614863329659 
-0.1502591661229151 
-0.06335709442867524 
0.1006703631637808 
0.1823050965999981 
-0.01867533518847437 
-0.04566876074036691 
-0.1751224123738985 
-0.1379147285176668 
0 
-0.01905979140394863 
0.03297189734339268 
-0.1176141375533363 
-0.09334885577137085 
-0.1392266547401706 
